digraph Tree {
node [shape=box] ;
0 [label="Frequency <= 48.5\ngini = 0.312\nsamples = 2261\nvalue = [1824, 437]\nclass = 0"] ;
1 [label="BMI <= 2.5\ngini = 0.496\nsamples = 895\nvalue = [489, 406]\nclass = 0"] ;
0 -> 1 [labeldistance=2.5, labelangle=45, headlabel="True"] ;
2 [label="gini = 0.39\nsamples = 316\nvalue = [232, 84]\nclass = 0"] ;
1 -> 2 ;
3 [label="gini = 0.494\nsamples = 579\nvalue = [257, 322]\nclass = 1"] ;
1 -> 3 ;
4 [label="Frequency <= 58.5\ngini = 0.044\nsamples = 1366\nvalue = [1335, 31]\nclass = 0"] ;
0 -> 4 [labeldistance=2.5, labelangle=-45, headlabel="False"] ;
5 [label="gini = 0.286\nsamples = 110\nvalue = [91, 19]\nclass = 0"] ;
4 -> 5 ;
6 [label="gini = 0.019\nsamples = 1256\nvalue = [1244, 12]\nclass = 0"] ;
4 -> 6 ;
}